<?xml version="1.0"?>
<opencv_storage>
<cascade>
  <stageType>BOOST</stageType>
  <featureType>HAAR</featureType>
  <height>30</height>
  <width>30</width>
  <stageParams>
    <boostType>GAB</boostType>
    <minHitRate>8.9999997615814209e-01</minHitRate>
    <maxFalseAlarm>5.0000000000000000e-01</maxFalseAlarm>
    <weightTrimRate>9.4999999999999996e-01</weightTrimRate>
    <maxDepth>1</maxDepth>
    <maxWeakCount>100</maxWeakCount></stageParams>
  <featureParams>
    <maxCatCount>0</maxCatCount>
    <featSize>1</featSize>
    <mode>ALL</mode></featureParams>
  <stageNum>11</stageNum>
  <stages>
    <!-- stage 0 -->
    <_>
      <maxWeakCount>3</maxWeakCount>
      <stageThreshold>-1.3067724704742432e+00</stageThreshold>
      <weakClassifiers>
        <_>
          <internalNodes>
            0 -1 16 8.8266289234161377e-01</internalNodes>
          <leafValues>
            -8.6936169862747192e-01 4.6500000357627869e-01</leafValues></_>
        <_>
          <internalNodes>
            0 -1 20 -1.3123166561126709e-01</internalNodes>
          <leafValues>
            2.6322361826896667e-01 -6.5273368358612061e-01</leafValues></_>
        <_>
          <internalNodes>
            0 -1 2 6.5307095646858215e-02</internalNodes>
          <leafValues>
            -3.9652198553085327e-01 2.1532291173934937e-01</leafValues></_></weakClassifiers></_>
    <!-- stage 1 -->
    <_>
      <maxWeakCount>4</maxWeakCount>
      <stageThreshold>-1.1726828813552856e+00</stageThreshold>
      <weakClassifiers>
        <_>
          <internalNodes>
            0 -1 0 1.2001788616180420e+00</internalNodes>
          <leafValues>
            -8.4234797954559326e-01 3.5757574439048767e-01</leafValues></_>
        <_>
          <internalNodes>
            0 -1 24 3.5053521394729614e-01</internalNodes>
          <leafValues>
            -5.8833128213882446e-01 2.4927631020545959e-01</leafValues></_>
        <_>
          <internalNodes>
            0 -1 8 -1.2045640498399734e-02</internalNodes>
          <leafValues>
            1.3544812798500061e-01 -5.4497253894805908e-01</leafValues></_>
        <_>
          <internalNodes>
            0 -1 25 -1.8368966411799192e-03</internalNodes>
          <leafValues>
            -6.4741891622543335e-01 1.2254825234413147e-01</leafValues></_></weakClassifiers></_>
    <!-- stage 2 -->
    <_>
      <maxWeakCount>4</maxWeakCount>
      <stageThreshold>-1.7114248275756836e+00</stageThreshold>
      <weakClassifiers>
        <_>
          <internalNodes>
            0 -1 13 3.1563740968704224e-01</internalNodes>
          <leafValues>
            -8.4243965148925781e-01 2.0634920895099640e-01</leafValues></_>
        <_>
          <internalNodes>
            0 -1 22 2.0705737173557281e-01</internalNodes>
          <leafValues>
            -6.0735368728637695e-01 1.5984821319580078e-01</leafValues></_>
        <_>
          <internalNodes>
            0 -1 32 -1.5981331467628479e-02</internalNodes>
          <leafValues>
            1.9087849557399750e-01 -4.3104797601699829e-01</leafValues></_>
        <_>
          <internalNodes>
            0 -1 28 1.0278201662003994e-03</internalNodes>
          <leafValues>
            1.4135168492794037e-01 -5.9778547286987305e-01</leafValues></_></weakClassifiers></_>
    <!-- stage 3 -->
    <_>
      <maxWeakCount>4</maxWeakCount>
      <stageThreshold>-1.1219494342803955e+00</stageThreshold>
      <weakClassifiers>
        <_>
          <internalNodes>
            0 -1 0 1.4118947982788086e+00</internalNodes>
          <leafValues>
            -8.2260072231292725e-01 2.0979021489620209e-01</leafValues></_>
        <_>
          <internalNodes>
            0 -1 14 2.2505274415016174e-01</internalNodes>
          <leafValues>
            -5.6901001930236816e-01 9.4040542840957642e-02</leafValues></_>
        <_>
          <internalNodes>
            0 -1 26 6.7791298031806946e-02</internalNodes>
          <leafValues>
            -5.1973319053649902e-01 1.9282932579517365e-01</leafValues></_>
        <_>
          <internalNodes>
            0 -1 38 1.0278245899826288e-03</internalNodes>
          <leafValues>
            1.2634399533271790e-01 -6.3548004627227783e-01</leafValues></_></weakClassifiers></_>
    <!-- stage 4 -->
    <_>
      <maxWeakCount>5</maxWeakCount>
      <stageThreshold>-1.0531229972839355e+00</stageThreshold>
      <weakClassifiers>
        <_>
          <internalNodes>
            0 -1 0 1.4776742458343506e+00</internalNodes>
          <leafValues>
            -8.1579494476318359e-01 4.9833886325359344e-02</leafValues></_>
        <_>
          <internalNodes>
            0 -1 1 2.0526039600372314e-01</internalNodes>
          <leafValues>
            -5.1675510406494141e-01 1.2567932903766632e-01</leafValues></_>
        <_>
          <internalNodes>
            0 -1 10 7.3260988574475050e-04</internalNodes>
          <leafValues>
            1.0898826271295547e-01 -7.2623699903488159e-01</leafValues></_>
        <_>
          <internalNodes>
            0 -1 5 4.9366815946996212e-03</internalNodes>
          <leafValues>
            1.5879127383232117e-01 -5.8033734560012817e-01</leafValues></_>
        <_>
          <internalNodes>
            0 -1 36 5.4377457126975060e-04</internalNodes>
          <leafValues>
            1.0834167897701263e-01 -7.9318428039550781e-01</leafValues></_></weakClassifiers></_>
    <!-- stage 5 -->
    <_>
      <maxWeakCount>5</maxWeakCount>
      <stageThreshold>-1.2954599857330322e+00</stageThreshold>
      <weakClassifiers>
        <_>
          <internalNodes>
            0 -1 0 1.2311686277389526e+00</internalNodes>
          <leafValues>
            -8.5348504781723022e-01 -3.4013605117797852e-01</leafValues></_>
        <_>
          <internalNodes>
            0 -1 31 -3.3511269837617874e-02</internalNodes>
          <leafValues>
            -3.7336344830691814e-03 -5.8721971511840820e-01</leafValues></_>
        <_>
          <internalNodes>
            0 -1 37 -4.6751991612836719e-04</internalNodes>
          <leafValues>
            -4.8643031716346741e-01 1.9353491067886353e-01</leafValues></_>
        <_>
          <internalNodes>
            0 -1 6 -1.5850592171773314e-04</internalNodes>
          <leafValues>
            -7.2405403852462769e-01 1.2686245143413544e-01</leafValues></_>
        <_>
          <internalNodes>
            0 -1 3 2.0356096327304840e-02</internalNodes>
          <leafValues>
            -4.1517862677574158e-01 2.5889402627944946e-01</leafValues></_></weakClassifiers></_>
    <!-- stage 6 -->
    <_>
      <maxWeakCount>5</maxWeakCount>
      <stageThreshold>-1.3761966228485107e+00</stageThreshold>
      <weakClassifiers>
        <_>
          <internalNodes>
            0 -1 9 5.1030579954385757e-02</internalNodes>
          <leafValues>
            -7.9839676618576050e-01 7.6363635063171387e-01</leafValues></_>
        <_>
          <internalNodes>
            0 -1 23 -7.9798698425292969e-02</internalNodes>
          <leafValues>
            4.4058439135551453e-01 -4.2891713976860046e-01</leafValues></_>
        <_>
          <internalNodes>
            0 -1 27 1.0083928704261780e-01</internalNodes>
          <leafValues>
            -6.2127929925918579e-01 1.6452212631702423e-01</leafValues></_>
        <_>
          <internalNodes>
            0 -1 39 1.4910397294443101e-04</internalNodes>
          <leafValues>
            2.1740561723709106e-01 -4.8876339197158813e-01</leafValues></_>
        <_>
          <internalNodes>
            0 -1 35 7.4825016781687737e-04</internalNodes>
          <leafValues>
            1.7535859346389771e-01 -6.6795033216476440e-01</leafValues></_></weakClassifiers></_>
    <!-- stage 7 -->
    <_>
      <maxWeakCount>5</maxWeakCount>
      <stageThreshold>-1.3962157964706421e+00</stageThreshold>
      <weakClassifiers>
        <_>
          <internalNodes>
            0 -1 7 3.0307990312576294e-01</internalNodes>
          <leafValues>
            -8.0433040857315063e-01 1.</leafValues></_>
        <_>
          <internalNodes>
            0 -1 11 3.3242762088775635e-01</internalNodes>
          <leafValues>
            -5.5287230014801025e-01 1.7900535464286804e-01</leafValues></_>
        <_>
          <internalNodes>
            0 -1 39 1.4483780250884593e-04</internalNodes>
          <leafValues>
            2.6234844326972961e-01 -5.0845408439636230e-01</leafValues></_>
        <_>
          <internalNodes>
            0 -1 4 -9.4181072199717164e-04</internalNodes>
          <leafValues>
            -6.1558777093887329e-01 2.2372403740882874e-01</leafValues></_>
        <_>
          <internalNodes>
            0 -1 29 -1.2372049968689680e-03</internalNodes>
          <leafValues>
            -6.0373830795288086e-01 2.4571689963340759e-01</leafValues></_></weakClassifiers></_>
    <!-- stage 8 -->
    <_>
      <maxWeakCount>3</maxWeakCount>
      <stageThreshold>-1.0267914533615112e+00</stageThreshold>
      <weakClassifiers>
        <_>
          <internalNodes>
            0 -1 12 4.7539282590150833e-02</internalNodes>
          <leafValues>
            -8.2112503051757813e-01 1.</leafValues></_>
        <_>
          <internalNodes>
            0 -1 19 2.1287292242050171e-01</internalNodes>
          <leafValues>
            -5.8217471837997437e-01 3.6104020476341248e-01</leafValues></_>
        <_>
          <internalNodes>
            0 -1 33 -8.4475777111947536e-04</internalNodes>
          <leafValues>
            -5.6670659780502319e-01 3.9886817336082458e-01</leafValues></_></weakClassifiers></_>
    <!-- stage 9 -->
    <_>
      <maxWeakCount>3</maxWeakCount>
      <stageThreshold>-9.8591828346252441e-01</stageThreshold>
      <weakClassifiers>
        <_>
          <internalNodes>
            0 -1 17 8.5151866078376770e-02</internalNodes>
          <leafValues>
            -8.4426230192184448e-01 1.</leafValues></_>
        <_>
          <internalNodes>
            0 -1 21 -7.7598288655281067e-02</internalNodes>
          <leafValues>
            7.4209415912628174e-01 -5.9584277868270874e-01</leafValues></_>
        <_>
          <internalNodes>
            0 -1 34 9.9489302374422550e-04</internalNodes>
          <leafValues>
            4.5418682694435120e-01 -7.3301100730895996e-01</leafValues></_></weakClassifiers></_>
    <!-- stage 10 -->
    <_>
      <maxWeakCount>3</maxWeakCount>
      <stageThreshold>-7.0687592029571533e-01</stageThreshold>
      <weakClassifiers>
        <_>
          <internalNodes>
            0 -1 30 -2.9449167195707560e-03</internalNodes>
          <leafValues>
            -9.1938579082489014e-01 1.</leafValues></_>
        <_>
          <internalNodes>
            0 -1 18 -4.2548768222332001e-02</internalNodes>
          <leafValues>
            1. -7.8749012947082520e-01</leafValues></_>
        <_>
          <internalNodes>
            0 -1 15 1.0526694677537307e-04</internalNodes>
          <leafValues>
            1. -6.4453470706939697e-01</leafValues></_></weakClassifiers></_></stages>
  <features>
    <_>
      <rects>
        <_>
          0 0 30 30 -1.</_>
        <_>
          10 10 10 10 9.</_></rects>
      <tilted>0</tilted></_>
    <_>
      <rects>
        <_>
          0 9 18 19 -1.</_>
        <_>
          9 9 9 19 2.</_></rects>
      <tilted>0</tilted></_>
    <_>
      <rects>
        <_>
          0 10 18 19 -1.</_>
        <_>
          9 10 9 19 2.</_></rects>
      <tilted>0</tilted></_>
    <_>
      <rects>
        <_>
          0 19 18 3 -1.</_>
        <_>
          9 19 9 3 2.</_></rects>
      <tilted>0</tilted></_>
    <_>
      <rects>
        <_>
          0 23 5 4 -1.</_>
        <_>
          0 24 5 2 2.</_></rects>
      <tilted>0</tilted></_>
    <_>
      <rects>
        <_>
          0 23 30 6 -1.</_>
        <_>
          0 26 30 3 2.</_></rects>
      <tilted>0</tilted></_>
    <_>
      <rects>
        <_>
          0 28 2 2 -1.</_>
        <_>
          0 28 1 1 2.</_>
        <_>
          1 29 1 1 2.</_></rects>
      <tilted>0</tilted></_>
    <_>
      <rects>
        <_>
          1 1 15 21 -1.</_>
        <_>
          6 8 5 7 9.</_></rects>
      <tilted>0</tilted></_>
    <_>
      <rects>
        <_>
          1 1 20 1 -1.</_>
        <_>
          1 1 10 1 2.</_></rects>
      <tilted>1</tilted></_>
    <_>
      <rects>
        <_>
          1 10 8 7 -1.</_>
        <_>
          5 10 4 7 2.</_></rects>
      <tilted>0</tilted></_>
    <_>
      <rects>
        <_>
          1 28 3 2 -1.</_>
        <_>
          1 29 3 1 2.</_></rects>
      <tilted>0</tilted></_>
    <_>
      <rects>
        <_>
          2 5 28 22 -1.</_>
        <_>
          9 5 14 22 2.</_></rects>
      <tilted>0</tilted></_>
    <_>
      <rects>
        <_>
          2 7 6 15 -1.</_>
        <_>
          5 7 3 15 2.</_></rects>
      <tilted>0</tilted></_>
    <_>
      <rects>
        <_>
          2 8 28 17 -1.</_>
        <_>
          9 8 14 17 2.</_></rects>
      <tilted>0</tilted></_>
    <_>
      <rects>
        <_>
          2 8 28 19 -1.</_>
        <_>
          9 8 14 19 2.</_></rects>
      <tilted>0</tilted></_>
    <_>
      <rects>
        <_>
          2 19 3 11 -1.</_>
        <_>
          3 19 1 11 3.</_></rects>
      <tilted>0</tilted></_>
    <_>
      <rects>
        <_>
          3 0 27 30 -1.</_>
        <_>
          12 10 9 10 9.</_></rects>
      <tilted>0</tilted></_>
    <_>
      <rects>
        <_>
          4 0 15 22 -1.</_>
        <_>
          9 0 5 22 3.</_></rects>
      <tilted>0</tilted></_>
    <_>
      <rects>
        <_>
          4 0 14 2 -1.</_>
        <_>
          4 0 7 2 2.</_></rects>
      <tilted>1</tilted></_>
    <_>
      <rects>
        <_>
          4 3 16 27 -1.</_>
        <_>
          12 3 8 27 2.</_></rects>
      <tilted>0</tilted></_>
    <_>
      <rects>
        <_>
          7 0 18 7 -1.</_>
        <_>
          7 0 9 7 2.</_></rects>
      <tilted>1</tilted></_>
    <_>
      <rects>
        <_>
          7 0 20 2 -1.</_>
        <_>
          7 0 10 2 2.</_></rects>
      <tilted>1</tilted></_>
    <_>
      <rects>
        <_>
          8 2 19 28 -1.</_>
        <_>
          8 9 19 14 2.</_></rects>
      <tilted>0</tilted></_>
    <_>
      <rects>
        <_>
          12 3 6 10 -1.</_>
        <_>
          12 3 3 10 2.</_></rects>
      <tilted>1</tilted></_>
    <_>
      <rects>
        <_>
          12 3 18 27 -1.</_>
        <_>
          18 12 6 9 9.</_></rects>
      <tilted>0</tilted></_>
    <_>
      <rects>
        <_>
          13 18 8 2 -1.</_>
        <_>
          13 19 8 1 2.</_></rects>
      <tilted>0</tilted></_>
    <_>
      <rects>
        <_>
          14 0 16 16 -1.</_>
        <_>
          14 8 16 8 2.</_></rects>
      <tilted>0</tilted></_>
    <_>
      <rects>
        <_>
          14 2 14 28 -1.</_>
        <_>
          14 9 14 14 2.</_></rects>
      <tilted>0</tilted></_>
    <_>
      <rects>
        <_>
          14 18 6 3 -1.</_>
        <_>
          14 19 6 1 3.</_></rects>
      <tilted>0</tilted></_>
    <_>
      <rects>
        <_>
          17 17 3 6 -1.</_>
        <_>
          18 18 1 6 3.</_></rects>
      <tilted>1</tilted></_>
    <_>
      <rects>
        <_>
          20 1 6 6 -1.</_>
        <_>
          20 3 6 2 3.</_></rects>
      <tilted>0</tilted></_>
    <_>
      <rects>
        <_>
          22 9 8 14 -1.</_>
        <_>
          26 9 4 14 2.</_></rects>
      <tilted>0</tilted></_>
    <_>
      <rects>
        <_>
          22 10 8 18 -1.</_>
        <_>
          26 10 4 18 2.</_></rects>
      <tilted>0</tilted></_>
    <_>
      <rects>
        <_>
          22 21 8 4 -1.</_>
        <_>
          22 22 8 2 2.</_></rects>
      <tilted>0</tilted></_>
    <_>
      <rects>
        <_>
          23 28 7 2 -1.</_>
        <_>
          23 29 7 1 2.</_></rects>
      <tilted>0</tilted></_>
    <_>
      <rects>
        <_>
          26 1 4 1 -1.</_>
        <_>
          28 1 2 1 2.</_></rects>
      <tilted>0</tilted></_>
    <_>
      <rects>
        <_>
          27 0 2 3 -1.</_>
        <_>
          27 1 2 1 3.</_></rects>
      <tilted>0</tilted></_>
    <_>
      <rects>
        <_>
          27 0 3 4 -1.</_>
        <_>
          27 1 3 2 2.</_></rects>
      <tilted>0</tilted></_>
    <_>
      <rects>
        <_>
          28 18 2 8 -1.</_>
        <_>
          29 18 1 8 2.</_></rects>
      <tilted>0</tilted></_>
    <_>
      <rects>
        <_>
          28 27 2 2 -1.</_>
        <_>
          29 27 1 2 2.</_></rects>
      <tilted>0</tilted></_></features></cascade>
</opencv_storage>
